Language model created by QuickLM on Fri Mar 22 08:29:26 EDT 2019
Copyright (c) 1996-2010 Carnegie Mellon University and Alexander I. Rudnicky

The model is in standard ARPA format, designed by Doug Paul while he was at MITRE.

The code that was used to produce this language model is available in Open Source.
Please visit http://www.speech.cs.cmu.edu/tools/ for more information

The (fixed) discount mass is 0.5. The backoffs are computed using the ratio method.
This model based on a corpus of 10 sentences and 12 words

\data\
ngram 1=12
ngram 2=20
ngram 3=10

\1-grams:
-0.7782 </s> -0.3010
-0.7782 <s> -0.2218
-1.7782 BA -0.2218
-1.7782 BARY -0.2218
-1.7782 BOOSN -0.2218
-1.7782 CHISN -0.2218
-1.7782 HAI -0.2218
-1.7782 KHOONG -0.2218
-1.7782 MOOJT -0.2218
-1.7782 NAWM -0.2218
-1.7782 SASU -0.2218
-1.7782 TASM -0.2218

\2-grams:
-1.3010 <s> BA 0.0000
-1.3010 <s> BARY 0.0000
-1.3010 <s> BOOSN 0.0000
-1.3010 <s> CHISN 0.0000
-1.3010 <s> HAI 0.0000
-1.3010 <s> KHOONG 0.0000
-1.3010 <s> MOOJT 0.0000
-1.3010 <s> NAWM 0.0000
-1.3010 <s> SASU 0.0000
-1.3010 <s> TASM 0.0000
-0.3010 BA </s> -0.3010
-0.3010 BARY </s> -0.3010
-0.3010 BOOSN </s> -0.3010
-0.3010 CHISN </s> -0.3010
-0.3010 HAI </s> -0.3010
-0.3010 KHOONG </s> -0.3010
-0.3010 MOOJT </s> -0.3010
-0.3010 NAWM </s> -0.3010
-0.3010 SASU </s> -0.3010
-0.3010 TASM </s> -0.3010

\3-grams:
-0.3010 <s> BA </s>
-0.3010 <s> BARY </s>
-0.3010 <s> BOOSN </s>
-0.3010 <s> CHISN </s>
-0.3010 <s> HAI </s>
-0.3010 <s> KHOONG </s>
-0.3010 <s> MOOJT </s>
-0.3010 <s> NAWM </s>
-0.3010 <s> SASU </s>
-0.3010 <s> TASM </s>

\end\
